{"levels":[{"inputs":[0.5368782514895202,0.17633464055247672,0,0.07388015330911102,0.5194411961329637],"outputs":[1,0,1,0],"biases":[-0.03732719486374452,0.6765918727480298,0.07025826181311733,0.6686505694516464],"weights":[[0.23257896813359938,-0.32032916228700264,0.7081777376473193,-0.04948812572503556],[0.7508989813927536,0.7209646737841476,0.10317101741397103,-0.42314897513512184],[-0.82152453253155,-0.6469402162416001,0.6231982272751164,0.8123718098945778],[0.18098762179140288,-0.4177775525672049,0.554225988264197,0.016561422599201674],[-0.5101392221089083,-0.45410705458207945,-0.4445120523798302,0.23105863366205942]]},{"inputs":[1,0,1,0],"outputs":[1,0,1,0],"biases":[-0.1376053489733977,-0.31915641421380875,0.769142951906126,0.5831567376300263],"weights":[[0.11705625780360095,-0.7597935648509354,0.1858425797519012,-0.017076627405183377],[-0.2826419983021181,0.14901994355851478,-0.25102339273112806,-0.7226734632547462],[0.43808696317402057,0.08007378329577297,0.7310113279065442,-0.3496837435969093],[0.5811456312591068,-0.02272142398343302,0.05526598376914729,-0.1250754949558034]]}]}